net
{
	propagationenginegenerator1791944048146838126L = "edu.ucla.belief.approx.BeliefPropagationSettings@67aad360";
	recoveryenginegenerator6944530267470113528l = "edu.ucla.util.SettingsImpl@4abed622";
	node_size = (130.0 55.0);
	huginenginegenerator3061656038650325130L = "edu.ucla.belief.inference.JoinTreeSettings@66867263";
	zcenginegenerator6314619632174047614L = "edu.ucla.belief.inference.JoinTreeSettings@6442344";
}

node Age
{
	states = ("Between16and21" "Between22and64" "Over65" );
	position = (340 -208);
	DSLxEXTRA_DEFINITIONxMANDATORY = "false";
	diagnosistype = "AUXILIARY";
	label = "Age";
	DSLxPOSITIONxWIDTH = "70";
	DSLxEXTRA_DEFINITIONxDIAGNOSIS_TYPE = "AUXILIARY";
	excludepolicy = "include whole CPT";
	DSLxTYPE = "CPT";
	DSLxPOSITIONxHEIGHT = "30";
	DSLxEXTRA_DEFINITIONxRANKED = "false";
	ismapvariable = "false";
	ID = "Age";
}
node FutureIncome
{
	states = ("Promising" "Not_promising" );
	position = (-199 -446);
	DSLxEXTRA_DEFINITIONxMANDATORY = "false";
	diagnosistype = "AUXILIARY";
	label = "Future Income";
	DSLxPOSITIONxWIDTH = "90";
	DSLxEXTRA_DEFINITIONxDIAGNOSIS_TYPE = "AUXILIARY";
	excludepolicy = "include whole CPT";
	DSLxTYPE = "CPT";
	DSLxPOSITIONxHEIGHT = "30";
	DSLxEXTRA_DEFINITIONxRANKED = "false";
	ismapvariable = "false";
	ID = "FutureIncome";
}
node Income
{
	states = ("High" "Medium" "Low" );
	position = (-85 -92);
	DSLxEXTRA_DEFINITIONxMANDATORY = "false";
	diagnosistype = "AUXILIARY";
	label = "Income";
	DSLxPOSITIONxWIDTH = "83";
	DSLxEXTRA_DEFINITIONxDIAGNOSIS_TYPE = "AUXILIARY";
	excludepolicy = "include whole CPT";
	DSLxTYPE = "CPT";
	DSLxPOSITIONxHEIGHT = "30";
	DSLxEXTRA_DEFINITIONxRANKED = "false";
	ismapvariable = "false";
	ID = "Profession";
}
node CreditWorthiness
{
	states = ("Positive" "Negative" );
	position = (196 -514);
	DSLxEXTRA_DEFINITIONxMANDATORY = "false";
	diagnosistype = "AUXILIARY";
	label = "Credit Worthiness";
	DSLxPOSITIONxWIDTH = "100";
	DSLxEXTRA_DEFINITIONxDIAGNOSIS_TYPE = "AUXILIARY";
	excludepolicy = "include whole CPT";
	DSLxTYPE = "CPT";
	DSLxPOSITIONxHEIGHT = "30";
	DSLxEXTRA_DEFINITIONxRANKED = "false";
	ismapvariable = "false";
	ID = "CreditWorthiness";
}
node Reliability
{
	states = ("Reliable" "Unreliable" );
	position = (345 -306);
	DSLxEXTRA_DEFINITIONxMANDATORY = "false";
	diagnosistype = "AUXILIARY";
	label = "Reliability";
	DSLxPOSITIONxWIDTH = "70";
	DSLxEXTRA_DEFINITIONxDIAGNOSIS_TYPE = "AUXILIARY";
	excludepolicy = "include whole CPT";
	DSLxTYPE = "CPT";
	DSLxPOSITIONxHEIGHT = "30";
	DSLxEXTRA_DEFINITIONxRANKED = "false";
	ismapvariable = "false";
	ID = "Reliability";
}
node Assets
{
	states = ("High" "Medium" "Low" );
	position = (154 -305);
	DSLxEXTRA_DEFINITIONxMANDATORY = "false";
	diagnosistype = "AUXILIARY";
	label = "Assets";
	DSLxPOSITIONxWIDTH = "70";
	DSLxEXTRA_DEFINITIONxDIAGNOSIS_TYPE = "AUXILIARY";
	excludepolicy = "include whole CPT";
	DSLxTYPE = "CPT";
	DSLxPOSITIONxHEIGHT = "30";
	DSLxEXTRA_DEFINITIONxRANKED = "false";
	ismapvariable = "false";
	ID = "Worth";
}
node PaymentHistory
{
	states = ("Excellent" "Acceptable" "Unacceptable" );
	position = (159 -208);
	DSLxEXTRA_DEFINITIONxMANDATORY = "false";
	diagnosistype = "AUXILIARY";
	label = "Payment History";
	DSLxPOSITIONxWIDTH = "93";
	DSLxEXTRA_DEFINITIONxDIAGNOSIS_TYPE = "AUXILIARY";
	excludepolicy = "include whole CPT";
	DSLxTYPE = "CPT";
	DSLxPOSITIONxHEIGHT = "30";
	DSLxEXTRA_DEFINITIONxRANKED = "false";
	ismapvariable = "false";
	ID = "PaymentHistory";
}
node DebtIncomeRatio
{
	states = ("Low" "High" );
	position = (-68 -289);
	DSLxEXTRA_DEFINITIONxMANDATORY = "false";
	diagnosistype = "AUXILIARY";
	label = "Ratio of Debts To Income";
	DSLxPOSITIONxWIDTH = "81";
	DSLxEXTRA_DEFINITIONxDIAGNOSIS_TYPE = "AUXILIARY";
	excludepolicy = "include whole CPT";
	DSLxTYPE = "CPT";
	DSLxPOSITIONxHEIGHT = "30";
	DSLxEXTRA_DEFINITIONxRANKED = "false";
	ismapvariable = "false";
	ID = "RatioDebInc";
}
potential ( Age | )
{
	data = (	0.3333333333333333	0.3333333333333333	0.3333333333333333	);
}
potential ( FutureIncome | Assets Income )
{
	data = (((	0.9	0.1	)
		(	0.7	0.3	)
		(	0.5	0.5	))
		((	0.8	0.2	)
		(	0.6	0.4	)
		(	0.3	0.7	))
		((	0.6	0.4	)
		(	0.3	0.7	)
		(	0.1	0.9	)));
}
potential ( Income | )
{
	data = (	0.3333333333333333	0.3333333333333333	0.3333333333333333	);
}
potential ( CreditWorthiness | Reliability FutureIncome DebtIncomeRatio )
{
	data = ((((	0.99	0.01	)
		(	0.9	0.1	))
		((	0.9	0.1	)
		(	0.3	0.7	)))
		(((	0.8	0.2	)
		(	0.4	0.6	))
		((	0.5	0.5	)
		(	0.05	0.95	))));
}
potential ( Reliability | PaymentHistory Age )
{
	data = (((	0.9090909090909091	0.09090909090909091	)
		(	0.9210526315789473	0.07894736842105263	)
		(	0.9230769230769231	0.07692307692307693	))
		((	0.6	0.4	)
		(	0.62	0.38	)
		(	0.65	0.35	))
		((	0.2	0.8	)
		(	0.25	0.75	)
		(	0.3	0.7	)));
}
potential ( Assets | Income )
{
	data = ((	0.6	0.3	0.1	)
		(	0.3	0.5	0.2	)
		(	0.1	0.2	0.7	));
}
potential ( PaymentHistory | Age DebtIncomeRatio )
{
	data = (((	0.1	0.2	0.7	)
		(	0.03	0.06999999999999999	0.9	))
		((	0.2	0.4	0.4	)
		(	0.1	0.2	0.7	))
		((	0.85	0.1	0.05	)
		(	0.4	0.3	0.3	)));
}
potential ( DebtIncomeRatio | )
{
	data = (	0.5	0.5	);
}
